svm_type c_svc
kernel_type rbf
gamma 0.10000000149011612
nr_class 3
total_sv 100
rho -0.526938304835468 -0.61125481006919657 -0.46376052498817444
label 2 1 0
probA 0.82664302899170339 -0.032922661230859074 0.51992570273565486
probB -0.56074492805246245 -0.18832748649091444 -0.28959533649174685
nr_sv 37 33 30
SV
1 1 1:0.37454012 2:0.95071431 3:0.73199394 4:0.59865848 5:0.15601864 6:0.15599452 7:0.058083612 8:0.86617615 9:0.60111501 10:0.70807258 
1 1 1:0.61185289 2:0.13949386 3:0.29214465 4:0.36636184 5:0.45606998 6:0.78517596 7:0.19967378 8:0.51423444 9:0.59241457 10:0.046450413 
1 1 1:0.60754485 2:0.17052412 3:0.065051593 4:0.94888554 5:0.96563203 6:0.80839735 7:0.30461377 8:0.097672114 9:0.68423303 10:0.44015249 
1 1 1:0.38867729 2:0.27134903 3:0.82873751 4:0.35675333 5:0.28093451 6:0.54269608 7:0.14092422 8:0.80219698 9:0.074550644 10:0.98688694 
1 1 1:0.417411 2:0.22210781 3:0.11986537 4:0.33761517 5:0.9429097 6:0.32320293 7:0.51879062 8:0.70301896 9:0.3636296 10:0.97178208 
1 1 1:0.96244729 2:0.2517823 3:0.49724851 4:0.30087831 5:0.28484049 6:0.036886947 7:0.60956433 8:0.50267902 9:0.051478751 10:0.27864646 
1 0.16417798974493253 1:0.093102768 2:0.89721576 3:0.90041806 4:0.63310146 5:0.33902979 6:0.34920957 7:0.72595568 8:0.89711026 9:0.88708642 10:0.77987555 
1 1 1:0.54873379 2:0.6918952 3:0.65196126 4:0.22426931 5:0.71217922 6:0.23724909 7:0.3253997 8:0.74649141 9:0.6496329 10:0.84922341 
1 1 1:0.7948113 2:0.50263709 3:0.57690388 4:0.49251769 5:0.19524299 6:0.72245212 7:0.28077236 8:0.024315966 9:0.6454723 10:0.17711068 
1 1 1:0.89000534 2:0.33799516 3:0.37558295 4:0.09398194 5:0.57828014 6:0.035942274 7:0.46559802 8:0.54264463 9:0.28654125 10:0.59083326 
1 1 1:0.051681721 2:0.53135463 3:0.54063512 4:0.6374299 5:0.72609133 6:0.97585208 7:0.51630035 8:0.32295647 9:0.79518619 10:0.27083225 
1 1 1:0.54922666 2:0.71459592 3:0.66019738 4:0.2799339 5:0.95486528 6:0.73789692 7:0.55435405 8:0.61172075 9:0.41960006 10:0.24773099 
1 1 1:0.49161588 2:0.47347177 3:0.17320187 4:0.43385165 5:0.39850473 6:0.6158501 7:0.63509365 8:0.04530401 9:0.37461261 10:0.62585992 
1 1 1:0.38816993 2:0.64328822 3:0.45825289 4:0.54561679 5:0.94146481 6:0.38610264 7:0.96119056 8:0.90535064 9:0.19579113 10:0.069361301 
0.17994561199558384 1 1:0.100778 2:0.018221826 3:0.094442961 4:0.68300677 5:0.071188648 6:0.31897563 7:0.84487531 8:0.023271936 9:0.81446848 10:0.28185477 
1 1 1:0.10312387 2:0.90255291 3:0.50525237 4:0.82645747 5:0.3200496 6:0.89552323 7:0.38920168 8:0.010837651 9:0.90538198 10:0.091286677 
1 1 1:0.79157904 2:0.78961814 3:0.091206103 4:0.4944203 5:0.05755876 6:0.54952888 7:0.4415305 8:0.88770418 9:0.35091501 10:0.11706702 
1 0 1:0.14299168 2:0.76151063 3:0.61821806 4:0.10112268 5:0.084106806 6:0.70096913 7:0.072763006 8:0.82186006 9:0.70624223 10:0.081348781 
0.49672172546775234 1 1:0.77714692 2:0.55840425 3:0.42422201 4:0.90635439 5:0.11119748 6:0.4926251 7:0.011353645 8:0.46866064 9:0.056303276 10:0.11881792 
1 0 1:0.012154475 2:0.96987883 3:0.043159912 4:0.89114311 5:0.52770111 6:0.9929648 7:0.073796565 8:0.55385428 9:0.96930254 10:0.52309784 
1 1 1:0.69816171 2:0.53609637 3:0.30952762 4:0.81379502 5:0.68473117 6:0.16261694 7:0.91092718 8:0.82253724 9:0.94979991 10:0.72571951 
1 1 1:0.6134152 2:0.41824304 3:0.93272848 4:0.86606389 5:0.04521867 6:0.026366974 7:0.37646337 8:0.81055333 9:0.98727613 10:0.15041689 
1 1 1:0.95405103 2:0.60617463 3:0.22864281 4:0.67170068 5:0.61812824 6:0.35816272 7:0.11355759 8:0.6715732 9:0.5203077 10:0.77231839 
1 0 1:0.70407977 2:0.21296416 3:0.13637148 4:0.014544666 5:0.35058756 6:0.58991769 7:0.39224405 8:0.43747492 9:0.90415869 10:0.34825547 
0.65731540293614377 1 1:0.45913576 2:0.98003258 3:0.49261809 4:0.32875161 5:0.63340085 6:0.24014562 7:0.075863328 8:0.12887972 9:0.12804584 10:0.15190269 
1 1 1:0.13882717 2:0.64087474 3:0.18188008 4:0.34566728 5:0.89678841 6:0.47396164 7:0.66755774 8:0.17231987 9:0.19228902 10:0.040868616 
0.82290452241285394 0.80270483384474045 1:0.16893506 2:0.27859034 3:0.17701048 4:0.088702534 5:0.12063587 6:0.46077877 7:0.20633372 8:0.36426986 9:0.50341727 10:0.69039483 
1 0.22507805332858433 1:0.03931214 2:0.7994104 3:0.62790039 4:0.081759032 5:0.87357862 6:0.9208724 7:0.06107796 8:0.27687765 9:0.80620128 10:0.74825969 
1 1 1:0.1642658 2:0.81457472 3:0.66519722 4:0.52306542 5:0.35883048 6:0.87720054 7:0.39244511 8:0.81659944 9:0.43913491 10:0.37694443 
1 0 1:0.46267979 2:0.30137787 3:0.74760938 4:0.50272039 5:0.2322127 6:0.89957457 7:0.38389122 8:0.54355286 9:0.90647211 10:0.624238 
1 1 1:0.69394844 2:0.54272444 3:0.25179906 4:0.34569599 5:0.18159772 6:0.90845056 7:0.58339179 8:0.40085142 9:0.4620058 10:0.94728334 
1 1 1:0.1533514 2:0.58622983 3:0.50588868 4:0.61145424 5:0.018110184 6:0.87212391 7:0.93211828 8:0.56513318 9:0.69665082 10:0.92249938 
1 1 1:0.22460482 2:0.45243952 3:0.14085702 4:0.17638699 5:0.49836777 6:0.41892545 7:0.9148459 8:0.3623939 9:0.58058835 10:0.63226429 
0.75204177279442186 0.80803912308174275 1:0.013094457 2:0.66353737 3:0.17803597 4:0.96107032 5:0.14866273 6:0.41462412 7:0.085349668 8:0.99687425 9:0.50219501 10:0.59538502 
0 1 1:0.067076477 2:0.74996047 3:0.20990559 4:0.89805429 5:0.20513964 6:0.19068772 7:0.036549668 8:0.47206695 9:0.56484113 10:0.065708639 
0.091070964393244372 0 1:0.27405522 2:0.554178 3:0.65142039 4:0.8297418 5:0.20642127 6:0.010995829 7:0.13688563 8:0.90001864 9:0.87389008 10:0.5974131 
1 1 1:0.79941588 2:0.69469647 3:0.27214514 4:0.59023067 5:0.3609739 6:0.091582073 7:0.91731358 8:0.13681863 9:0.95023735 10:0.44600577 
-1 1 1:0.020584494 2:0.96990985 3:0.83244264 4:0.21233911 5:0.18182497 6:0.18340451 7:0.30424224 8:0.52475643 9:0.43194502 10:0.29122914 
-1 1 1:0.86310343 2:0.62329813 3:0.33089802 4:0.06355835 5:0.31098232 6:0.32518332 7:0.72960618 8:0.63755747 9:0.88721274 10:0.47221493 
-1 1 1:0.11959425 2:0.71324479 3:0.76078505 4:0.5612772 5:0.77096718 6:0.4937956 7:0.52273283 8:0.42754102 9:0.025419127 10:0.10789143 
-1 1 1:0.28975145 2:0.16122129 3:0.92969765 4:0.80812038 5:0.63340376 6:0.87146059 7:0.80367208 8:0.18657006 9:0.892559 10:0.53934224 
-1 1 1:0.90826589 2:0.23956189 3:0.14489487 4:0.48945276 5:0.98565045 6:0.24205527 7:0.67213555 8:0.76161962 9:0.23763754 10:0.72821635 
-1 1 1:0.34106635 2:0.11347352 3:0.92469362 4:0.87733935 5:0.25794163 6:0.65998405 7:0.8172222 8:0.55520081 9:0.52965058 10:0.24185229 
-1 1 1:0.64203165 2:0.084139965 3:0.16162871 4:0.89855419 5:0.60642906 6:0.0091970516 7:0.10147154 8:0.66350177 9:0.0050615838 10:0.16080805 
-1 0 1:0.94045858 2:0.95392858 3:0.91486439 4:0.3701587 5:0.015456617 6:0.92831856 7:0.42818415 8:0.96665482 9:0.96361998 10:0.85300946 
-1 1 1:0.61500723 2:0.99005385 3:0.14008402 4:0.51832965 5:0.87737307 6:0.74076862 7:0.69701574 8:0.70248408 9:0.35949115 10:0.29359184 
-1 1 1:0.80936116 2:0.81011339 3:0.86707232 4:0.91324055 5:0.5113424 6:0.50151629 7:0.79829518 8:0.64996393 9:0.70196688 10:0.79579267 
-1 1 1:0.03050025 2:0.037348189 3:0.82260056 4:0.36019064 5:0.12706051 6:0.52224326 7:0.76999355 8:0.21582103 9:0.62289048 10:0.085347465 
-1 1 1:0.50313626 2:0.85648984 3:0.65869363 4:0.16293443 5:0.070568747 6:0.64241928 7:0.026511311 8:0.58577558 9:0.94023024 10:0.57547418 
-1 1 1:0.99050514 2:0.41261768 3:0.37201809 4:0.77641296 5:0.34080354 6:0.93075733 7:0.85841275 8:0.42899403 9:0.75087107 10:0.75454287 
-1 1 1:0.31931364 2:0.95006197 3:0.95060715 4:0.57343789 5:0.63183721 6:0.44844552 7:0.29321077 8:0.32866455 9:0.67251846 10:0.75237453 
-1 1 1:0.084837714 2:0.98663958 3:0.3742708 4:0.37064215 5:0.81279957 6:0.94724858 7:0.98600106 8:0.75337819 9:0.37625959 10:0.083500717 
-1 1 1:0.11752625 2:0.6492103 3:0.74604488 4:0.58336877 5:0.96217255 6:0.37487058 7:0.28571209 8:0.86859913 9:0.22359584 10:0.96322254 
-1 1 1:0.45565675 2:0.6201326 3:0.27738118 4:0.18812116 5:0.4636984 6:0.35335223 7:0.58365611 8:0.077734637 9:0.97439481 10:0.98621074 
-1 1 1:0.81290101 2:0.99971767 3:0.99663684 4:0.55543171 5:0.76898742 6:0.94476573 7:0.84964739 8:0.2473481 9:0.45054414 10:0.12915942 
-1 1 1:0.51398949 2:0.78365301 3:0.39654278 4:0.6220867 5:0.86236371 6:0.94952062 7:0.14707348 8:0.92658763 9:0.49211629 10:0.25824439 
-1 0.87585090102532337 1:0.020071198 2:0.32207917 3:0.21144801 4:0.32749735 5:0.11976213 6:0.89052728 7:0.59359245 8:0.67910232 9:0.78917124 10:0.4984422 
-1 0.12414909897467663 1:0.1733736 2:0.89676542 3:0.080233746 4:0.52451139 5:0.41039683 6:0.98237862 7:0.1120389 8:0.3978556 9:0.96947043 10:0.86550713 
-1 1 1:0.53258943 2:0.051823537 3:0.33660428 4:0.13441468 5:0.06337497 6:0.98996023 7:0.32235384 8:0.80987445 9:0.25464065 10:0.68150272 
-1 1 1:0.76022786 2:0.59563874 3:0.47157619 4:0.41184091 5:0.34886827 6:0.92952914 7:0.83061941 8:0.96502691 9:0.12429722 10:0.73086748 
-1 1 1:0.93834046 2:0.18123307 3:0.066496267 4:0.74112065 5:0.57447311 6:0.84182878 7:0.13977238 8:0.79526731 9:0.20162732 10:0.16365594 
-1 0 1:0.11689804 2:0.93983212 3:0.62770805 4:0.33490561 5:0.13927207 6:0.79402519 7:0.62007276 8:0.53346109 9:0.89389258 10:0.78859721 
-1 1 1:0.15167488 2:0.31172207 3:0.24848914 4:0.74394629 5:0.033532435 6:0.56988968 7:0.76245869 8:0.87676564 9:0.34208175 10:0.8212573 
-1 1 1:0.11063174 2:0.84645229 3:0.12748866 4:0.39728729 5:0.79729537 6:0.14991743 7:0.2292514 8:0.72225257 9:0.72003654 10:0.64114763 
-1 1 1:0.80285345 2:0.004632023 3:0.33349917 4:0.39816869 5:0.5373956 6:0.91985562 7:0.34634599 8:0.3469532 9:0.73750125 10:0.45221794 
-1 1 1:0.77552762 2:0.45328883 3:0.52439027 4:0.44076275 5:0.40076306 6:0.55964033 7:0.15524025 8:0.18192813 9:0.86178562 10:0.94611546 
-1 1 1:0.2310748 2:0.67189274 3:0.019710538 4:0.10410858 5:0.79991609 6:0.17854466 7:0.65274611 8:0.23818278 9:0.099441393 10:0.24317219 
-1 1 1:0.59029494 2:0.26806364 3:0.62414891 4:0.40941165 5:0.55204718 6:0.43612653 7:0.29446576 8:0.94845331 9:0.76360579 10:0.14011318 
-1 1 1:0.082798668 2:0.60315211 3:0.24534911 4:0.38929561 5:0.28869374 6:0.35567272 7:0.71904591 8:0.29712172 9:0.56640464 10:0.4760504 
-1 1 1:0.66367117 2:0.93682974 3:0.7325721 4:0.21494038 5:0.031183135 6:0.26226404 7:0.59507793 8:0.051425813 9:0.49636625 10:0.59684285 
-1 -1 1:0.12203823 2:0.49517691 3:0.034388521 4:0.9093204 5:0.25877998 6:0.66252228 7:0.31171108 8:0.52006802 9:0.54671028 10:0.18485446 
-1 -1 1:0.96958463 2:0.77513282 3:0.93949894 4:0.89482735 5:0.59789998 6:0.92187424 7:0.088492502 8:0.19598286 9:0.045227289 10:0.32533033 
-1 -1 1:0.77224477 2:0.19871568 3:0.0055221171 4:0.81546143 5:0.70685734 6:0.72900717 7:0.77127035 8:0.074044652 9:0.35846573 10:0.11586906 
-1 -1 1:0.031429186 2:0.63641041 3:0.31435598 4:0.50857069 5:0.90756647 6:0.24929223 7:0.41038292 8:0.75555114 9:0.22879817 10:0.07697991 
-1 -1 1:0.80744016 2:0.8960913 3:0.31800347 4:0.11005192 5:0.22793516 6:0.42710779 7:0.81801477 8:0.86073058 9:0.0069521305 10:0.5107473 
-1 -1 1:0.36778313 2:0.63230583 3:0.63352971 4:0.53577468 5:0.09028977 6:0.8353025 7:0.32078006 8:0.18651851 9:0.040775142 10:0.59089294 
-1 -1 1:0.67756436 2:0.016587829 3:0.51209306 4:0.22649578 5:0.64517279 6:0.17436643 7:0.69093774 8:0.38673535 9:0.93672999 10:0.13752094 
-1 -1 1:0.65761289 2:0.5683086 3:0.093674768 4:0.3677158 5:0.26520237 6:0.24398964 7:0.97301055 8:0.39309772 9:0.89204656 10:0.63113863 
-1 -1 1:0.29444889 2:0.38509773 3:0.85113667 4:0.31692201 5:0.16949275 6:0.55680126 7:0.93615477 8:0.6960298 9:0.57006117 10:0.097176494 
-1 -1 1:0.43897142 2:0.078456381 3:0.025350743 4:0.96264841 5:0.83598012 6:0.69597421 7:0.40895294 8:0.17329432 9:0.15643704 10:0.2502429 
-1 -1 1:0.35597268 2:0.75784611 3:0.014393489 4:0.11607264 5:0.046002642 6:0.040728802 7:0.85546058 8:0.70365786 9:0.47417383 10:0.097834161 
-1 -1 1:0.11816483 2:0.69673717 3:0.62894285 4:0.87747201 5:0.73507104 6:0.80348093 7:0.28203457 8:0.17743954 9:0.75061475 10:0.80683474 
-1 -1 1:0.62939864 2:0.69574869 3:0.45454106 4:0.62755808 5:0.58431431 6:0.90115801 7:0.04544638 8:0.28096319 9:0.95041148 10:0.89026378 
-1 -1 1:0.59413072 2:0.38089086 3:0.9699144 4:0.84211892 5:0.8383287 6:0.46869316 7:0.4148195 8:0.27340707 9:0.056375497 10:0.86472238 
-1 -1 1:0.5201635 2:0.8521815 3:0.55190684 4:0.56093797 5:0.8766536 6:0.40348287 7:0.13401523 8:0.028782676 9:0.75513726 10:0.62030955 
-1 -1 1:0.18452102 2:0.20934932 3:0.3704721 4:0.48452299 5:0.61825477 6:0.36891364 7:0.46253472 8:0.74747094 9:0.036683203 10:0.25243694 
-1 -1 1:0.71334959 2:0.89520684 3:0.51167744 4:0.53211349 5:0.10717201 6:0.44741237 7:0.53261727 8:0.2424705 9:0.26924323 10:0.37728416 
-1 -1 1:0.086920288 2:0.53710654 3:0.58684112 4:0.74543947 5:0.43165955 6:0.1275803 7:0.28377591 8:0.3630823 9:0.64591724 10:0.5707783 
-1 -1 1:0.35609673 2:0.98651525 3:0.60577482 4:0.23722679 5:0.10178247 6:0.15285914 7:0.24595773 8:0.16068137 9:0.18656702 10:0.28509517 
-1 -1 1:0.81707207 2:0.25790283 3:0.17088759 4:0.66864322 5:0.92937599 6:0.55676289 7:0.57161269 8:0.27997909 9:0.76949293 10:0.18704375 
-1 -1 1:0.32367924 2:0.42543644 3:0.50761038 4:0.24240973 5:0.11483682 6:0.61062004 7:0.28863055 8:0.58123822 9:0.15436272 10:0.4811401 
-1 -1 1:0.70723863 2:0.15253904 3:0.57628836 4:0.60671505 5:0.42413067 6:0.73644424 7:0.93436701 8:0.92556851 9:0.45083937 10:0.11323805 
-1 -1 1:0.9848412 2:0.83889809 3:0.12466268 4:0.92084188 5:0.86989636 6:0.51883806 7:0.59127544 8:0.3990027 9:0.054761639 10:0.33519724 
-1 -1 1:0.37330932 2:0.27074467 3:0.64399954 4:0.40873417 5:0.025386356 6:0.1561526 7:0.71597223 8:0.65892394 9:0.027095993 10:0.22197216 
-1 -1 1:0.72226693 2:0.85569647 3:0.83021986 4:0.39718353 5:0.66808514 6:0.2049843 7:0.29314773 8:0.89633582 9:0.013001924 10:0.085508531 
-1 -1 1:0.20788626 2:0.026532204 3:0.18143544 4:0.58304156 5:0.42142455 6:0.89267171 7:0.81744356 8:0.34181735 9:0.25942343 10:0.37969241 
-1 -1 1:0.86846798 2:0.4874312 3:0.89455223 4:0.79985526 5:0.4252135 6:0.022469308 7:0.26867736 8:0.54163421 9:0.63347822 10:0.25788769 
-1 -1 1:0.13935607 2:0.83493024 3:0.98440218 4:0.52569018 5:0.17167929 6:0.27230733 7:0.018390677 8:0.91429881 9:0.11775108 10:0.57651648 
-1 -1 1:0.60051686 2:0.66503667 3:0.17537128 4:0.91441195 5:0.41877052 6:0.38313853 7:0.51891771 8:0.046965967 9:0.16628337 10:0.73803362 
-1 -1 1:0.33424389 2:0.7709122 3:0.10659825 4:0.075137782 5:0.72818876 6:0.49549132 7:0.6884024 8:0.43482734 9:0.24640203 10:0.81910232 
